-0.0514535
-0.155685
0.125427
-0.0326795
-0.0522317
-0.123853
0.0810616
-0.157703
0.194862
-0.0641909
-0.127685
0.191843
-0.0434396
0.0468231
0.168737
-0.219605
0.110577
0.10559
0.151252
0.0801036
-0.0758765
-0.109736
-0.224517
-0.00800334
-0.25046
-0.00231122
-0.223477
-0.161094
0.27571
0.08357
0.00578188
0.255619
0.0981545
0.120081
-0.0461044
0.165989
0.081821
-0.265471
0.0984139
0.16128
0.318727
-0.104705
0.120832
-0.0204626
-0.00725021
0.141787
0.119427
0.0846676
-0.105442
-0.302462
0.0515371
0.0923838
0.493449
0.183342
0.3684
0.103575
-0.141691
-0.540205
-0.116176
-0.403813
-0.232828
-0.340272
-0.087773
-0.382608
-0.246758
-0.390205
-0.533652
-0.155609
0.20838
0.433418
0.558015
0.282769
0.120985
0.248391
-0.0226316
-0.0630998
0.275045
0.118449
0.322109
0.0755837
0.111978
0.00573293
0.234663
-0.0666699
-0.218209
0.0165635
-0.096011
-0.0777417
-0.167929
-0.404656
-0.0305576
0.439461
0.56897
0.307405
-0.233016
-0.775826
-0.877463
-0.584687
-0.474984
-0.256228
-0.295696
-0.280436
-0.342918
-0.323937
0.208819
0.222532
-0.148117
-0.410963
-0.256845
0.350024
-0.312047
-0.206525
-0.0659375
0.0144558
-0.0108059
0.00950605
-0.0927507
-0.310501
-0.050478
-0.11055
0.228372
-0.16092
-0.0183475
0.188126
0.271399
0.0113136
0.156547
0.274762
0.264727
0.132892
-0.209836
0.14118
-0.0495333
0.192086
0.0358071
-0.0994245
0.107952
-0.067441
0.257754
-0.159864
0.115334
-0.109572
-0.00690391
0.1127
-0.0967633
-0.130039
0.181874
0.157413
0.169208
-0.179404
0.119775
-0.168148
0.0188542
-0.118071
0.136944
0.0461893
0.121771
0.128439
-0.120767
0.020283
0.0532541
0.106963
-0.247578
-0.22258
-0.106597
-0.26522
-0.00443002
0.141096
-0.0621342
-0.217693
0.0968324
-0.089824
-0.0422666
0.0153313
-0.0680281
0.182285
0.0436274
0.0711458
-0.166529
0.0713821
0.136511
0.0196579
-0.114161
-0.134926
-0.178931
0.174213
0.0776257
-0.0275735
-0.121337
0.228012
0.226138
-0.00334993
-0.119611
-0.0708998
0.00709859
-0.145729
0.0953403
0.0766867
0.176256
0.028443
0.214916
-0.221625
0.175063
-0.0928079
0.15039
-0.236214
-0.0734351
0.021068
-0.161904
0.203003
0.161552
-0.182954
0.0943777
-0.169871
-0.113488
-0.168623
0.233555
0.0679526
0.173669
-0.286608
0.00570885
0.213905
-0.0846992
0.0897446
0.16447
0.026697
-0.163256
-0.133744
-0.141132
-0.285807
-0.152072
-0.133037
-0.197213
-0.0676197
-0.115746
0.166278
-0.026227
-0.175762
-0.0577002
0.22349
0.0732669
0.0911822
0.092582
-0.163083
-0.187638
-0.230817
-0.189889
-0.0839501
-0.088671
0.0652373
-0.0454261
0.103204
0.214563
0.0683385
0.220066
-0.149588
0.154577
0.0428019
0.0995438
0.0458874
0.163706
0.173185
0.375123
0.125424
-0.199533
0.00539095
-0.173276
-0.129782
-0.043102
-0.0239651
-0.138411
0.0297586
-0.138443
0.148576
-0.168785
-0.0675184
-0.29955
-0.0401866
0.111431
-0.121826
-0.25269
0.164353
-0.110358
-0.061822
-0.276207
-0.20846
-0.103019
-0.0555188
-0.115606
-0.282635
-0.417606
0.459119
0.0314206
-0.0297198
0.0198711
-0.136883
-0.341556
-0.195239
-0.53028
-0.234539
-0.513856
-0.538931
-0.672395
-0.625331
-1.29088
-0.550405
-0.0450871
-0.0992567
-0.0588208
0.00866286
-0.155252
0.0191988
-0.262056
0.0423768
0.0152371
-0.294539
-0.144248
-0.0881137
-0.351822
-0.0964576
0.361111
0.161301
0.0684574
0.561776
0.513707
0.248858
0.484216
0.250573
0.273672
0.54839
0.474378
0.511431
1.09069
0.336345
-0.38067
-0.249006
-0.0297083
-0.340584
-0.363404
-0.357837
-0.283236
-0.137448
-0.365616
-0.14311
0.0345196
-0.0400752
-0.622436
0.044471
0.223356
0.0327794
0.155115
-0.00610719
0.0857916
-0.035734
0.331437
0.220357
0.00766606
0.18696
0.251755
0.123445
0.529357
-0.1108
-0.0897957
-0.0676972
0.102098
-0.0626272
0.0749488
0.0521369
-0.131449
0.205413
-0.0956997
0.118745
0.220668
-0.0161393
0.0278802
0.255805
0.096139
0.0824889
-0.0515588
-0.310166
-0.0519344
-0.0408402
0.157645
-0.0705814
-0.318212
-0.155988
-0.0664406
-0.348241
-0.146658
0.00615655
-0.0325841
0.202474
-0.11275
0.0159191
-0.17756
0.131018
-0.0518076
-0.0514837
0.0428408
-0.159343
0.0517204
-0.182704
-0.0196618
-0.00297083
0.06349
0.086001
0.045825
0.185249
-0.159828
-0.040002
0.103787
-0.0345406
0.114104
-0.170901
0.0317213
-0.163089
0.0149366
0.124316
-0.156003
0.149886
-0.0102844
-0.0688564
0.0664256
-0.144171
0.0677428
0.0746704
-0.234797
0.0427529
-0.0189603
0.202569
-0.154542
-0.0225127
0.293679
0.0318807
-0.21015
0.00169326
0.0851847
-0.0922291
0.114454
0.165806
0.038582
0.0159216
-0.0908728
-0.112312
-0.118658
0.0584919
0.00634435
-0.0468663
-0.278471
-0.203895
-0.0424094
-0.0477072
-0.19914
-0.0584118
0.18265
-0.110772
-0.0267997
0.146051
0.16145
0.26539
0.015217
0.204971
0.262198
0.142338
0.0635895
-0.0961121
0.115571
0.183778
0.102326
0.485137
-0.213799
-0.213147
0.0105301
-0.0854523
-0.160758
-0.00312123
-0.178032
-0.0228107
0.00836709
-0.206443
-0.235175
0.124579
-0.0808053
-0.258281
0.159506
0.0420025
0.109988
-0.168451
-0.00718369
-0.190211
-0.299493
-0.345973
0.0593178
-0.480408
-0.243876
-0.318917
-0.012544
-0.0989547
-0.21345
0.0937313
-0.096883
0.138049
0.268452
0.204096
0.269883
0.133961
0.31458
0.39656
0.345977
0.190431
0.141442
0.484263
-0.0469734
0.248473
-0.00917984
-0.00861994
0.61227
0.509917
0.464687
0.219407
0.143909
0.203072
0.416739
0.149159
-0.0696549
0.861411
0.130393
0.26796
0.174732
0.241475
0.241657
0.189871
0.181242
0.0756058
0.0780293
-0.131238
0.110637
0.0198065
0.0441793
0.423301
0.349583
0.523404
0.399274
0.224302
0.384706
0.507337
0.281979
0.149718
0.183818
0.0939804
-0.0367382
-0.160215
-0.510044
0.567084
0.0286741
-0.100054
0.121012
-0.0946994
-0.370147
-0.299703
-0.124508
0.234518
0.0172347
-0.411099
-0.0731036
0.00155838
0.0127462
-0.2075
0.132679
-0.180728
-0.0723136
0.112611
-0.330995
-0.230313
-0.231074
-0.185363
0.0455208
-0.126828
0.0483445
0.125872
-0.0292964
-0.23626
-0.0871176
-0.00657589
0.0717351
-0.0120761
0.00465855
-0.196009
0.128281
-0.0519904
-0.16815
0.0736128
-0.199302
0.0314189
-0.000301226
0.00534708
-0.0931591
-0.0857111
0.15769
0.0152898
0.0835348
0.1299
0.0187726
-0.0811622
-0.0980713
0.09712
-0.00387361
-0.0145924
-0.105384
0.0430169
-0.00227097
-0.261943
-0.0843788
0.0549428
-0.366936
-0.267461
0.00962308
-0.137054
0.0349836
-0.132005
-0.275326
0.185038
0.0222374
-0.0986303
0.0583285
0.0147798
-0.229698
0.129246
0.176439
0.0371801
0.134244
0.0363941
-0.0592283
-0.13586
0.113268
0.152465
-0.221073
-0.0120549
-0.0774962
0.133968
-0.133394
0.0572812
-0.00271869
0.154634
0.16928
0.116487
-0.267686
-0.150482
0.198648
-0.00709093
-0.141497
-0.233969
-0.0414482
-0.0276116
-0.108806
-0.0684908
-0.189947
0.116028
0.130141
-0.0710315
0.0525482
-0.00918612
-0.082645
0.484779
0.50466
0.337633
-0.0264122
0.643724
0.408693
0.0801601
-0.0466429
-0.308472
0.265891
-0.269961
-0.0397683
-0.205135
0.0933323
-0.120178
0.0452606
-0.0633319
0.177945
0.0441096
-0.105388
0.145321
-0.0411035
0.235587
-0.182633
0.175253
-0.10324
-0.134886
-0.0558754
-0.138851
-0.192279
-0.00748101
0.159923
0.130594
0.072191
0.0445869
0.000356873
0.200059
-0.123845
-0.187124
-0.199761
0.0264146
-0.075781
-0.054882
0.224872
-0.14585
0.0768568
0.276715
0.0895405
0.0247434
-0.133179
-0.0815187
0.0947164
0.164841
0.26803
0.0474012
0.12556
0.15959
-0.227158
-0.140712
-0.14989
-0.238237
-0.105472
-0.126274
-0.362731
-0.196111
-0.113718
-0.0541946
-0.226778
-0.193766
-0.349791
-0.247637
-0.101796
0.0303847
0.225901
0.161761
-0.0411587
0.281438
0.232453
0.272041
0.289477
0.177881
0.237664
0.213268
0.421616
0.21759
-0.101481
0.0208824
0.10711
0.107712
0.134442
0.149791
-0.22113
-0.100389
0.265589
-0.108193
-0.0677044
0.191185
0.12304
-0.259857
-0.400315
-0.0731854
-0.3105
-0.272949
-0.291248
-0.25997
-0.221101
-0.057091
-0.0353848
0.127257
-0.128993
-0.095826
-0.632745
0.119665
-0.144519
-0.0583166
-0.120392
0.0255667
-0.14766
-0.166392
0.169926
0.123512
-0.208255
-0.126701
-0.164123
0.124238
-0.163399
0.155264
0.155233
-0.0335239
-0.046974
-0.220529
-0.0835825
0.130897
-0.0520913
0.062093
-0.294349
0.0728756
0.056419
0.129068
0.00526698
-0.156272
0.0951226
-0.260073
-0.188443
-0.0886618
0.0593096
0.0311762
-0.216813
-0.242309
-0.00197944
0.017013
-0.17544
-0.0367042
-0.156493
-0.0301165
0.258142
0.213946
-0.0681188
0.21497
-0.0871358
0.020894
-0.0788015
-0.171429
-0.124321
-0.145269
-0.0276596
0.194209
0.0183556
-0.038887
-0.118562
-0.205737
0.0807662
0.100596
-0.0408345
-0.114005
0.0492503
0.205382
0.107579
-0.142781
-0.151728
-0.151634
-0.0421054
0.0316096
0.0287706
-0.0703849
0.0131115
0.0554429
-0.0931463
0.020939
0.0981286
-0.119032
0.0173605
-0.0369458
0.104911
-0.0172537
0.00998967
-0.137539
-0.148955
0.0636612
0.204476
-0.0716017
-0.180107
0.205273
0.0100711
0.243972
-0.109596
-0.182572
0.00996432
0.110559
-0.206712
-0.215504
0.0265291
0.204561
-0.278092
-0.179944
0.26482
0.142106
-0.179669
-0.10408
0.162365
0.0572754
-0.103276
0.0863954
-0.0654947
-0.215035
0.0551008
-0.0564659
-0.0904459
-0.135727
0.0384962
0.00372442
0.180663
0.0994114
0.144788
-0.0353222
0.139992
-0.160975
0.132026
-0.138664
0.158338
-0.0562086
0.16809
-0.0943658
-0.103646
-0.127226
0.228321
-0.228618
-0.0076164
-0.000705097
0.326668
0.0727254
0.00956015
0.304468
-0.0426737
-0.0122498
0.318726
0.308888
0.200304
-0.197298
0.139295
0.132927
-0.0298791
0.406631
-0.114998
-0.0227956
-0.0401317
-0.473297
0.401947
0.409393
0.0280857
-0.407023
-0.631898
0.376835
0.0377751
-0.311753
-0.0656368
-0.08065
-0.179147
-0.0663988
-0.334663
-0.255757
0.144496
-0.144929
-0.306099
-0.541671
-0.430363
-0.095949
-0.115972
-0.267762
-0.232542
-0.848254
0.0425351
0.331439
0.316595
0.132842
0.200421
0.492062
0.193638
0.297286
-0.308346
0.208907
-0.0458743
0.0951612
0.127111
0.5942
-0.22629
-0.107937
-0.321048
-0.145847
0.162552
0.0464737
-0.160789
-0.33716
-0.117334
-0.321343
-0.143731
-0.292986
-0.326522
-0.816421
0.350168
0.0233348
0.318657
0.413846
-0.0747232
-0.0840643
0.374455
0.371893
0.122769
0.143918
0.301214
0.0427251
0.122657
0.850617
0.267554
-0.0804251
0.220473
0.239482
0.0135449
0.128877
0.106334
-0.00633284
0.033414
-0.0892984
-0.334171
-0.190412
-0.120743
-0.0500392
-0.144544
-0.205769
0.0576401
0.067135
0.396368
0.417046
0.346102
0.04555
-0.191385
0.570772
0.323856
0.114739
0.555208
0.615646
0.183358
0.0760536
0.075853
-0.00813535
-0.0835908
0.114365
-0.065848
0.1905
0.0165019
0.152579
0.133953
0.0308283
0.0557697
0.173193
-0.330602
-0.0762638
-0.138249
-0.338543
0.290895
0.121359
-0.126524
-0.128735
-0.245423
0.326393
-0.235594
0.02001
0.0756717
-0.0504198
-0.00893165
-0.305014
0.0184605
0.0805031
0.0449535
-0.198509
-0.0635544
0.157443
0.0951501
-0.301135
-0.0418226
-0.146473
-0.195474
-0.0621576
0.148284
0.128424
-0.0216209
0.0138526
-0.00146079
0.0177969
-0.111111
-0.102153
-0.060482
0.0965375
0.0972371
-0.0302579
-0.0587533
0.0253486
0.226747
-0.0578751
0.0106819
-0.163652
0.204262
0.19541
-0.228118
0.105007
-0.0377308
-0.21149
0.0359812
-0.00257291
-0.0123105
0.161804
0.060704
-0.245693
-0.0669493
0.0677317
-0.235366
-0.241154
0.0371941
0.0824808
-0.0515917
0.0832177
-0.0812631
-0.00297357
-0.156513
0.225893
-0.0807727
-0.198369
-0.0288018
-0.0591195
0.260545
0.00811389
-0.18664
0.146759
0.0700826
-0.117166
0.0596638
0.111088
0.227171
0.129731
-0.116745
0.12279
0.0613264
-0.00981716
-0.0192715
-0.113253
-0.0840399
-0.195852
-0.28391
-0.294733
-0.0819869
0.0544289
0.163391
0.213339
0.296686
-0.089459
0.0683028
-0.018688
0.278778
0.234022
0.0263599
-0.0734623
0.00192624
0.102772
0.299058
-0.161221
-0.0244369
-0.17435
0.233618
-0.12549
-0.160988
-0.164123
0.0622721
0.0998326
-0.23595
-0.0221464
0.164113
0.0243606
-0.125281
0.76886
0.220385
0.455754
0.573303
0.00904461
-0.062856
0.142381
0.361997
0.258285
-0.127546
0.106188
0.257606
-0.49271
0.842945
0.2825
0.265965
0.442501
0.311015
0.495323
0.629087
0.529867
0.142592
0.180306
0.362818
0.307796
-0.180432
-0.372348
0.941085
0.0357225
0.166752
0.178424
0.238928
0.199069
0.504636
0.717992
0.634082
0.281935
0.734306
0.790122
0.453068
0.606159
1.70378
-0.157091
-0.0842772
-0.167915
0.172999
-0.23451
-0.226291
0.21191
0.374337
0.426696
-0.0936504
0.219631
0.300052
-0.195046
0.0892888
-0.360473
-0.398935
-0.394768
-0.386965
-0.325029
-0.214388
-0.450283
-0.156332
-0.25588
-0.169267
-0.141627
0.0822211
-0.0120215
-0.89342
-0.0466104
0.120497
0.392324
0.104105
-0.0339926
0.402657
0.521571
0.577591
0.489751
0.137832
0.245897
0.291375
0.23682
1.05719
0.0100052
-0.452368
-0.291405
-0.0130788
-0.51551
-0.304699
-0.493719
-0.308479
0.304436
-0.54214
-0.339019
-0.0899595
-0.235562
-0.982163
0.00322617
0.0278571
-0.15751
-0.115678
0.153506
0.259742
0.0308827
-0.109649
-0.0521604
0.0725743
0.151678
0.167082
0.140327
0.1643
-0.0180234
0.0901812
-0.0203794
-0.111187
0.293002
0.234958
0.114668
-0.199161
-0.095494
0.187983
0.151259
-0.114302
-0.100698
0.0533996
-0.0524266
0.0691907
0.0924406
-0.0307085
0.169153
0.0629152
0.11487
0.06141
0.113672
-0.17396
-0.164533
-0.0411635
-0.160696
-0.000444411
-0.105134
0.0154144
-0.087008
0.0943448
0.230785
-0.195627
0.119683
-0.138646
-0.148554
0.236181
0.0679402
-0.00274897
-0.0656735
0.101703
-0.134731
0.0057489
-0.029353
0.0990706
-0.205981
0.249777
-0.176272
-0.0389846
-0.192363
-0.0862212
-0.0560769
-0.0197645
-0.0546998
-0.0746239
-0.113324
0.181488
-0.231893
-0.206855
-0.0852932
0.176629
-0.102383
0.118583
0.0927042
-0.236437
-0.110697
0.0182117
0.254333
0.0739709
0.00575152
0.426641
-0.150785
-0.149943
-0.469551
-0.488541
-0.236298
-0.337178
-0.636879
-0.223324
-0.53976
-0.162443
-0.0430775
-0.108162
-0.142665
0.147274
0.149638
-0.072771
-0.198396
-0.0196447
-0.000517089
-0.390346
-0.373078
-0.404263
-0.520895
0.456591
0.459975
0.464932
0.286024
-0.0995037
0.422914
0.798753
0.435178
0.0383384
0.486291
0.692453
0.230049
0.440075
1.76178
-0.134743
0.117438
0.232416
0.36957
0.108293
0.387528
0.42295
0.474961
0.124566
0.581674
0.515006
0.405723
0.30449
1.28674
0.100653
-0.0457072
-0.343343
-0.481089
0.0655425
-0.354263
-0.466013
-0.181412
0.0791075
-0.427194
-0.415566
-0.0512791
-0.180831
-0.428201
0.00674862
0.0117163
-0.0686883
-0.0190074
-0.254684
-0.362258
-0.175136
-0.389074
-0.107339
-0.38902
-0.357059
-0.481459
-0.596795
-0.569951
-0.182003
-0.0555382
-0.0101023
0.208773
0.124529
0.265323
0.00936604
0.218258
0.125029
0.191923
0.230633
0.149563
0.27015
0.281427
-0.000931765
-0.366313
-0.221935
-0.176961
-0.553397
-0.627427
-0.513382
-0.117463
-0.0565977
-0.667259
-0.473998
-0.417767
-0.525991
-1.46253
-0.236824
-0.271511
-0.235423
-0.371551
0.0431787
-0.103921
-0.117853
0.00510883
-0.0792493
0.0526452
-0.0196312
-0.105016
0.252361
-0.351159
-0.495794
-0.560732
-0.4717
-0.350492
0.241921
-0.10055
-0.289754
-0.0162195
0.126373
0.0512412
-0.172417
-0.228859
0.0403712
-0.801921
0.248934
0.0297734
0.193697
0.227584
0.053547
-0.086729
0.0512149
-0.0576136
-0.187524
0.279062
-0.0277212
-0.0303708
-0.00656376
0.126943
0.0366712
-0.0113815
-0.198481
0.132714
-0.207807
-0.136296
-0.070578
-0.0590975
0.0913566
-0.0343005
0.0417405
0.0583344
0.109795
-0.0239053
-0.0425211
0.000636335
0.179684
-0.0831905
-0.167847
0.176214
0.0474127
-0.00944886
-0.0777806
0.0793094
-0.137004
-0.144959
-0.0614165
-0.0143792
-0.0763169
-0.151616
0.195244
-0.138096
-0.169278
-0.0772121
0.0980764
-0.00202745
-0.126419
-0.0467719
0.167454
-0.0126049
-0.111616
0.181017
0.0723036
0.0883444
-0.00892604
0.229105
-0.262838
-0.275902
0.200756
-0.131715
-0.0797555
-0.078846
-0.0240966
-0.195127
0.149812
-0.11707
0.144027
-0.259486
0.0861141
0.0759192
0.17625
0.0124981
0.0639697
0.0807932
0.139692
0.13655
0.0890706
-0.0125863
-0.00741538
0.154504
-0.000597816
0.192913
-0.0608266
-0.183078
-0.073801
-0.187965
-0.11198
0.16797
0.0798525
-0.122232
-0.0478159
-0.214448
-0.0350357
-0.0781755
-0.376339
-0.0770546
-0.0334658
-0.0404967
-0.114415
-0.274751
0.00596151
-0.054884
-0.032992
0.0776177
-0.349343
-0.128851
-0.242326
-0.274653
-0.341319
-0.0074407
-0.281972
-0.659775
-0.615679
-0.273513
-0.227207
-0.418612
-0.490129
0.0834129
-1.28712
-0.193513
-0.317295
-0.10788
-0.122796
-0.452144
-0.490136
-0.33364
0.0866738
0.189365
-0.290559
-0.00115609
0.21499
0.0268448
-0.538921
0.135082
0.0435173
-0.259086
0.154347
-0.439425
-0.326075
-0.15397
-0.174859
-0.100422
-0.440709
-0.00217436
-0.0138346
-0.133545
-0.456313
-0.101303
-0.108412
-0.0636422
0.111332
0.138268
-0.080033
-0.0774825
-0.0224799
0.0610841
0.232817
0.0674866
0.00514874
0.309323
0.130383
-0.232089
0.0194946
-0.202543
0.0831339
0.00309431
-0.121815
-0.122153
-0.256234
-0.340268
-0.288388
-0.473637
-0.288328
0.00112729
-0.571799
-0.479887
-0.490301
-0.452019
-0.0762132
-0.501563
-0.256178
-0.335485
-0.151871
0.106195
-0.315401
-0.316781
0.0104698
0.303842
-0.897325
-0.00962279
0.198061
-0.00595777
-0.0465507
0.331665
0.0214921
0.141611
0.10225
-0.151071
0.209686
-0.0865555
0.190022
-0.0739688
0.148127
0.102105
-0.0275866
-0.0108841
0.240687
-0.208616
0.0964369
0.204083
-0.0301706
-0.0111126
-0.0680692
-0.0754053
-0.0592436
0.029199
0.104476
-0.25083
0.0505274
-0.024471
-0.207046
0.192794
-0.146127
-0.0119752
-0.144666
0.215935
-0.152742
-0.093753
-0.12174
0.0912825
-0.0644977
0.0115213
-0.0735005
-0.0252635
0.0737689
0.125584
-0.0438338
-0.00703016
-0.0320791
-0.123699
0.173378
-0.0401775
0.000686748
-0.132457
-0.0162513
0.185379
-0.0119809
0.0594333
0.0635006
-0.183742
-0.0290167
-0.149599
0.179031
-0.167577
0.099465
0.188131
-0.0392147
-0.114032
0.00369914
0.112802
-0.17054
-0.0175258
-0.231946
0.155132
0.207019
0.0898039
0.04275
0.0652374
-0.0793568
-0.16225
-0.023607
-0.250542
0.194788
0.188752
0.238963
-0.225729
0.113305
-0.0278454
0.0159754
-0.225381
-0.194725
0.0790905
0.213358
0.0392371
0.146065
0.115155
-0.139152
0.0781088
0.0946334
-0.191139
0.189788
0.100251
-0.0214516
-0.105175
0.0476928
-0.161603
0.0962634
0.0633482
0.0966583
0.201496
0.0288902
-0.14251
0.206837
-0.0318196
0.00905352
-0.103019
0.117043
-0.000567597
-0.0378829
-0.151726
0.069292
0.0697241
-0.0484214
0.0294572
-0.207428
0.0594053
-0.162589
0.0747049
0.0434511
0.0553377
-0.0711367
-0.119401
0.0724507
0.16823
0.108009
0.00860386
-0.232976
-0.242125
0.0521193
0.040538
0.0785687
0.090831
0.0529039
0.0986269
-0.0964494
-0.153409
-0.0317035
0.232866
-0.120275
-0.0404018
0.32548
0.387455
0.103294
0.0940302
0.227729
0.247237
0.128173
-0.0824358
-0.214088
-0.11487
-0.10495
-0.190517
-0.168323
0.158713
0.353151
0.0505629
0.409332
0.345677
0.0549768
0.281043
0.199697
-0.0597296
-0.0515317
-0.178558
-0.214267
-0.112252
-0.0423592
0.286422
0.15848
0.250541
0.0346047
-0.0685313
0.108708
0.00628214
-0.135615
0.0948523
-0.0404376
0.0553973
0.138061
-0.186091
-0.152636
0.0949569
-0.205241
0.022078
-0.108451
0.186263
-0.0887894
0.156455
0.239136
0.189153
0.234518
-0.136588
0.189873
-0.115366
-0.131599
0.00738398
0.00298775
0.342369
0.171447
0.0397421
0.362096
0.0831796
0.0620941
-0.00015019
0.281192
0.0293787
-0.000892227
0.0572573
-0.240959
0.15704
-0.387146
-0.520667
-0.421853
-0.136647
-0.46472
-0.312674
-0.307095
-0.0737283
-0.112347
-0.175394
0.229018
0.0650669
0.388135
-0.303381
0.17902
0.0439453
-0.155798
-0.0698287
-0.159889
0.0397754
0.14488
-0.167935
0.144813
-0.0620606
0.158892
-0.126417
0.091772
0.0419792
-0.205868
0.0639515
-0.0763336
-0.0709305
-0.00510349
0.0938741
0.000239172
-0.0387421
0.126586
0.119107
-0.0496113
-0.0851445
-0.147505
-0.0191381
-0.113416
-0.15567
0.012792
-0.063307
0.162279
0.0356544
0.0440332
0.0186173
0.144965
-0.124149
-0.141959
-0.038375
0.0741146
-0.00203642
-0.020722
-0.062009
0.153959
0.0989721
0.0247501
-0.17244
-0.0894211
-0.00897656
-0.133519
0.142944
-0.0941256
0.0580894
0.134035
0.0192311
-0.164631
0.0259537
0.148442
0.0542581
-0.00189403
0.121364
-0.00807319
0.00389298
-0.148518
0.0609164
0.0861321
0.0378996
0.133607
-0.0049003
-0.0780006
0.0159533
-0.248374
-0.0436103
0.040083
0.052738
-0.0186483
0.110782
0.00992699
0.0742195
0.0195356
0.207603
-0.157825
0.125305
-0.0228503
-0.0326002
0.134704
-0.125668
-0.190089
-0.154543
0.1271
0.113535
-0.183336
0.0727948
0.00862832
0.0200068
-0.163438
-0.0703815
-0.0939549
0.0422442
-0.143458
0.0604012
0.165627
-0.0675927
0.108388
-0.1029
0.10604
0.0593332
-0.0126324
-0.0586195
0.0828356
-0.0326663
-0.14471
0.0155251
0.0316853
0.144499
0.117545
-0.150195
0.0205957
0.147172
-0.144215
-0.113418
-0.0156211
-0.0528943
-0.138119
-0.0825321
0.0657935
0.0296946
-0.0606302
0.061991
-0.0779413
0.0792234
-0.0218639
-0.126457
0.136068
0.0357902
0.0191812
-0.0272695
-0.133043
0.153889
0.0127265
0.069783
0.136002
-0.18238
0.0261236
-0.0780539
-0.0713864
0.0111523
0.120897
-0.0249045
0.018759
0.0672724
0.0320825
0.196904
0.0950385
0.0410488
0.0723456
0.063158
-0.0922083
0.155524
-0.195749
0.0915814
0.0903173
-0.193143
0.0668369
-0.265683
-0.128408
0.097682
-0.259335
0.147531
0.102014
-0.133415
-0.178336
0.195286
0.0358489
0.0262286
0.136526
-0.132133
-0.0303525
-0.316611
0.0503956
-0.160822
-0.163354
0.102983
-0.0316376
0.112143
0.0917891
0.0864856
-0.142559
0.157888
0.0432888
-0.0335029
0.0245096
0.364531
0.20387
0.191799
0.234687
-0.139585
0.0876275
0.179626
0.0655816
-0.106878
0.067402
-0.174506
-0.210548
-0.108349
0.0343316
-0.0638292
-0.0176541
-0.169289
-0.169828
-0.0126962
0.0746586
0.0413705
0.0934487
-0.0798849
0.168727
-0.141035
0.0313076
-0.00746091
-0.0360085
-0.0560953
0.188358
0.0077187
0.0960973
-0.0529748
-0.0198178
0.0497211
-0.0947526
-0.109074
0.209452
-0.178477
-0.00968568
-0.140611
0.00534661
-0.191768
-0.0927377
-0.113002
0.153282
-0.0565425
0.0646247
-0.0356978
0.162453
-0.0446767
0.0574518
0.0902298
-0.0478281
0.0726198
0.00850326
0.172407
-0.116624
0.0428896
0.0603316
0.0674279
0.0253174
-0.147925
-0.185463
-0.158804
0.13303
-0.0752742
0.0247847
0.169031
0.0123805
0.150616
-0.1713
0.100092
0.0975685
-0.169605
-0.102978
-0.0883634
0.055899
-0.0228535
0.133844
0.0465904
-0.174604
0.188635
-0.00868433
0.101536
-0.103331
0.123141
-0.227845
0.125274
0.146211
0.00203325
0.175467
0.0774233
0.115981
-0.261693
0.0362415
-0.150018
-0.170634
0.205947
-0.0869529
0.0239159
-0.0296581
0.115762
-0.114722
-0.165981
-0.0123298
0.0691765
0.232524
-0.00800354
-0.140656
0.121879
-0.174187
0.0230432
0.108203
0.207318
0.137073
-0.0149592
-0.136628
-0.0788485
-0.157691
0.0110625
-0.0250646
-0.00186749
-0.143318
-0.162191
-0.023139
0.119993
-0.0514982
0.199227
0.194103
0.010167
-0.045107
-0.15358
0.0285267
0.0645774
-0.145329
-0.0018387
-0.138572
0.142555
0.00994316
-0.0250411
-0.133748
0.132063
-0.178867
0.103388
-0.20329
0.103947
0.0565534
0.0839793
0.141057
0.0088708
-0.157407
-0.121811
-0.071825
0.149968
0.165033
-0.109535
-0.14738
-0.0923022
-0.0595359
-0.11856
-0.000409104
0.191308
0.109182
-0.0121223
-0.129765
-0.0728784
0.0372171
0.0724419
0.0273101
0.150258
-0.210266
0.120047
0.160075
-0.0512526
0.0989224
-0.0465293
0.105275
0.0311
-0.161764
-0.122626
-0.0283004
-0.136184
0.106188
-0.0635337
0.0558676
0.0115323
0.0126405
-0.0441572
0.118167
-0.077714
0.00607006
-0.0237249
0.154135
0.136674
0.0843129
-0.0208134
0.0182936
-0.100221
0.0214318
-0.0441612
-0.0449004
0.0997542
-0.00059479
-0.0621376
0.00625149
0.0381866
-0.116077
-0.0512701
0.163429
0.0293525
-0.148492
0.133528
-0.0587622
0.043177
-0.110061
0.116348
-0.113802
0.133881
-0.105567
-0.019524
-0.0604492
-0.0780253
0.114362
0.0963589
-0.176858
-0.0594545
-0.0468539
0.176168
-0.17863
0.0292891
0.163831
0.135138
-0.0194181
0.000521735
0.185305
-0.173741
0.0686071
0.130123
-0.0694056
-0.00885649
0.0920798
0.0805135
-0.111802
0.0160952
-0.0785001
0.00184971
-0.103705
-0.00489165
0.0929447
-0.124826
-0.12669
-0.0132229
-0.0863886
0.0439223
-0.159295
0.0893054
0.207449
-0.145239
0.00380046
0.126468
0.0230958
-0.0156678
0.0221822
0.173664
-0.0291045
0.157275
0.115341
0.0601426
-0.110683
-0.0826579
-0.211654
0.0773289
0.159909
-0.182147
-0.0676558
0.0161226
-0.101997
-0.0122445
-0.158308
0.13245
0.149814
0.102162
0.147501
0.170875
0.139534
-0.00735349
-0.212725
0.0451449
-0.118072
0.0261158
-0.00785407
0.0379674
0.156716
-0.232668
0.150409
0.0499161
-0.0712603
-0.155684
0.0309371
0.147799
0.106492
0.124251
-0.168201
0.0309863
-0.192363
0.202035
0.0248491
0.207233
-0.0703083
-0.110135
-0.0759818
0.0661823
-0.21696
0.165947
-0.13229
-0.0161946
-0.0128716
0.222699
-0.193203
0.106363
0.181554
-0.196912
-0.129967
-0.153986
0.0827414
0.128533
0.141035
-0.193293
0.000237566
-0.115109
-0.0372586
-0.051289
-0.0892392
0.0928606
-0.149583
-0.142425
0.184663
0.0442433
0.120026
0.015214
0.113488
-0.0589623
0.00701906
-0.180464
0.0727925
0.00345498
-0.113201
0.0902174
-0.037978
-0.0663112
-0.102229
0.173209
-0.116808
-0.0596907
0.155413
0.0279693
-0.0039148
0.163617
-0.021321
0.103616
-0.0786209
0.0131857
-0.134321
0.0363155
-0.122934
0.092971
-0.175331
0.129213
-0.115814
0.0887824
0.0315507
0.0648764
-0.00193178
0.121579
-0.0388087
0.0436353
0.102384
0.0136577
0.123185
-0.176799
0.0218132
-0.0371116
0.110314
-0.0938514
-0.00504079
-0.00913533
0.0643341
-0.173685
0.115756
0.0375625
-0.155622
0.191181
-0.0872163
0.153507
-0.119949
0.0692682
-0.125396
0.0570869
-0.00648605
0.0885878
-0.120043
-0.129202
0.0208872
0.149277
-0.115833
-0.100341
-0.0909579
0.144971
-0.111926
-0.167921
0.219553
0.120087
-0.0204993
0.00833961
0.173818
-0.00175631
0.0543535
0.0323976
-0.0941308
0.0282896
0.0580782
0.0723687
0.0058212
-0.130761
-0.137988
-0.0294888
0.017626
-0.0192083
0.0101801
-0.121115
-0.155215
-0.0899882
0.111523
-0.084238
0.106267
0.00608466
0.0669273
-0.146308
0.217262
-0.0630028
-0.00958504
0.201923
0.0262856
0.0897555
0.176368
-0.169889
-0.103981
-0.133437
0.0550227
-0.0464166
-0.103751
-0.0442987
-0.0458381
0.120316
-0.00785798
-0.0468974
-0.14471
0.220127
-0.130708
0.0490226
0.00397682
-0.16727
0.0417196
0.0441883
0.11245
0.062084
-0.162441
-0.0902115
0.00444209
0.0316988
-0.0076318
-0.142256
-0.149304
-0.00757239
-0.0713686
0.0605681
-0.0240233
-0.0597328
0.0563698
0.0868203
0.0523555
-0.0468729
-0.0234605
-0.0423569
0.157804
0.0725459
-0.146739
0.058935
0.13022
-0.0736026
0.0849965
0.0750134
-0.0724704
-0.08485
-0.0348743
-0.0360204
0.0232306
0.171248
-0.0526107
-0.185143
0.0227002
-0.00601334
-0.027534
-0.035243
0.153259
0.158918
0.0198851
0.140074
-0.208918
-0.0412043
0.0164163
0.137533
-0.132831
0.17536
-0.0878566
-0.0259921
-0.0872195
-0.0272453
-0.0655607
0.0744124
-0.1566
-0.123625
0.106666
0.12328
0.0378861
-0.182838
0.199221
-0.171367
-0.0274617
-0.208241
0.033403
0.209678
0.170335
-0.207855
0.217917
-0.11583
0.0245852
-0.0663357
-0.19905
0.0702696
-0.0274957
-0.0205998
-0.126792
-0.138597
-0.117077
0.0971949
0.247442
0.148835
-0.0277941
-0.0139861
-0.1983
0.12619
0.164165
-4.87986e-05
0.0342061
0.113362
-0.0818763
-0.0331524
0.0516689
-0.162865
0.149636
-0.0859208
0.00188826
-0.0085551
0.158825
-0.155757
0.132208
0.0791661
-0.140112
0.147802
0.17641
-0.0956289
0.0347565
-0.200425
-0.0539424
0.0318331
-0.0255756
0.00307674
0.149551
-0.119915
-0.165234
0.0911709
-0.0384033
-0.0238156
-0.0690594
0.122593
-0.0475558
0.102341
0.051328
-0.0865188
-0.0298755
-0.00687189
-0.0806985
-0.135332
0.0169552
0.0105897
-0.0460733
0.111108
0.124608
0.0523726
-0.120543
0.130892
-0.155648
0.0883351
0.110165
-0.0053575
-0.167968
0.152826
0.0519183
-0.00740384
-0.19535
0.125393
0.102011
-0.132177
-0.0804666
0.0842317
-0.112284
0.142907
0.164728
0.0124455
-0.0502273
0.175625
-0.136153
-0.110133
0.0354469
-0.0345572
0.102293
-0.105442
-0.165369
0.14437
0.0707969
-0.0340757
-0.113828
-0.0219411
-0.0432346
0.103781
-0.150041
-0.152229
-0.129762
0.208336
-0.0870857
-0.168896
0.0267192
0.22609
-0.0849031
0.0655805
-0.0690248
-0.0067781
-0.122875
0.0353504
-0.151368
-0.0514556
-0.0819445
0.117326
-0.0458351
0.0247228
-0.151271
0.109994
-0.073039
0.153409
0.178114
-0.0133052
-0.0987844
-0.142581
0.1048
0.19532
0.0396782
-0.105022
0.140055
-0.0552672
0.133263
-0.00346456
-0.182327
-0.158879
0.0839892
-0.0125812
-0.167948
0.0799379
0.0737515
0.00218416
-0.0735959
0.216334
0.0101615
-0.081166
0.00687841
-0.129718
0.0703417
0.0203617
-0.0614534
-0.0245228
0.00815985
-0.140172
0.0652189
0.0769943
-0.167705
-0.139654
-0.171394
0.082087
0.0322968
0.0593288
0.16069
0.155597
0.163138
0.0328179
-0.195835
0.0686859
0.173523
0.0653789
0.0317637
-0.0146043
0.137584
0.129087
-0.0882986
0.0226215
-0.142635
-0.0563482
-0.128571
-0.00270268
-0.200113
-0.0638668
0.0991538
-0.0294699
0.062705
0.0765576
0.0197256
0.127344
0.0550039
0.0551602
0.0971393
-0.00964241
-0.196134
-0.0143664
0.00670925
-0.0334163
0.040549
0.119934
-0.0484895
-0.059564
0.173883
-0.160126
-0.102289
0.167536
0.06286
0.112588
-0.178998
0.018258
-0.128059
0.226304
-0.127973
0.0702882
-0.140705
-0.152337
-0.0665829
0.0693634
-0.0578031
0.0857244
-0.134189
-0.00148099
-0.182872
-0.146387
0.114367
-0.13406
-0.00496397
-0.04976
0.0783725
0.139341
-0.161125
0.0068475
0.157249
0.144742
0.0285415
-0.0182874
0.178752
0.0511608
-0.150483
-0.0988939
0.0688946
-0.047201
0.164514
-0.0897694
-0.0573615
0.193694
-0.0856959
-0.155303
0.0132862
-0.0187975
0.0474191
-0.0813
-0.0526581
-0.160257
-0.0596672
0.117959
0.0330601
0.0690666
-0.100841
0.134122
0.174376
-0.00506823
-0.0104807
-0.0518228
-0.157573
0.05718
-0.0764883
0.128003
-0.0698699
0.13778
-0.0951509
0.107354
0.134431
-0.00930361
-0.0839647
-0.137209
-0.00524359
-0.0957494
-0.112534
0.156915
0.0272452
0.158551
-0.0210518
-0.0379245
0.11085
-0.0145507
-0.136843
0.0956378
0.0591307
-0.128009
0.010453
-0.166756
0.117045
-0.00730843
-0.108276
0.156311
-0.0813549
-0.170562
0.0711357
-0.0135807
0.140946
0.135213
0.140518
-0.191273
-0.00244715
0.158727
-0.124393
0.108166
0.00818764
-0.01606
0.0659063
0.10438
0.136417
-0.192033
-0.083358
-0.00390665
0.124425
-0.183526
0.00749639
0.0856556
0.0943488
0.0417389
-0.035057
0.11028
-0.16036
0.140287
-0.0369678
-0.0789034
-0.158893
-0.0874474
-0.145789
0.156673
0.000859431
-0.0707713
0.164742
-0.057273
-0.0761451
-0.0918469
0.0730429
0.0814544
0.163749
0.0995924
-0.0648821
-0.1086
-0.0526744
0.131629
0.014817
0.0144147
-0.0910229
0.0477702
-0.143263
-0.172884
-0.116423
0.0693912
-0.0185424
-0.0747579
0.155089
0.198281
-0.166482
0.201602
0.00629986
-0.159805
0.0875619
-0.183882
0.176404
0.0491756
0.16042
-0.169529
-0.104226
-0.0280333
0.127236
-0.106471
0.192019
-0.040464
-0.0048163
0.150057
-0.0662048
0.112539
-0.103798
-0.0450398
0.0887567
0.01706
0.131315
-0.161255
-0.0313076
-0.135217
-0.125209
0.0865495
0.00587876
-0.149604
0.0188371
0.0469579
0.182252
-0.111419
-0.0648276
-0.0977424
0.0755719
-0.189735
-0.0700285
0.0643548
0.107924
0.0965342
0.00335809
0.151094
0.128254
-0.113604
-0.112965
-0.0321147
-0.156768
0.0998737
-0.169651
0.0958498
0.119574
-0.0858281
0.0605581
0.0608962
0.0212376
-0.137633
0.00683213
-0.0147459
0.0651695
0.214116
-0.0980065
0.090869
-0.115133
-0.0762994
-0.103374
-0.124145
0.0518691
0.021829
-0.0156474
0.133125
0.0157092
0.00803951
0.187829
-0.1169
-0.0941712
-0.0050831
0.0886496
0.0221426
-0.127059
-0.239681
0.00866594
-0.0230964
-0.0662414
-0.234774
-0.0295313
0.120632
0.00222825
0.0434278
0.170285
-0.247079
0.0785589
0.190849
0.0384863
0.035799
0.0367655
0.0867033
0.0508666
-0.141294
0.145812
0.121918
0.00217382
-0.049631
0.0332168
0.0974697
-0.15932
0.123903
-0.223019
0.0146719
-0.00639091
0.0857242
0.0164392
-0.10094
-0.0212907
-0.106712
-0.0588109
-0.0466027
-0.0924268
0.0982357
0.0374945
0.148923
0.121001
0.0228077
-0.0126244
-0.0651706
-0.0470832
-0.00940795
0.216301
0.0785204
0.0051589
-0.0426614
0.195915
-0.154617
-0.143322
0.0139722
-0.0710899
-0.014977
-0.0458821
0.0896746
-0.0944651
0.183799
0.0319627
-0.0327657
-0.0184387
-0.179284
0.0687258
-0.0835994
-0.0640257
0.116776
0.032899
0.02282
0.118032
0.118294
-0.101147
-0.120727
-0.0154883
-0.145503
-0.1827
0.123089
0.139897
0.143852
-0.041541
0.00379909
0.0647731
0.0161131
0.21165
-0.0560142
-0.00919888
0.123449
-0.0843039
0.0612863
-0.141281
-0.180731
0.0679591
-0.123844
0.072773
0.112956
-0.159149
-0.0082713
-0.129961
0.155524
-0.0583853
-0.0324756
0.0081117
0.135014
-0.120992
-0.0670244
0.0356855
0.170344
0.116583
0.084861
-0.188629
0.0121307
-0.210947
0.149316
0.151461
-0.00160313
-0.181592
0.0783798
0.0424531
-0.0372274
0.0329528
0.0316888
-0.0390212
-0.0165481
0.11035
0.0440746
0.156613
-0.0922533
0.174158
0.083607
-0.0578067
-0.139934
0.0279754
0.148324
0.13878
0.0854773
-0.156038
-0.202648
-0.0514738
0.0198729
-0.186346
0.153994
-0.113891
0.0173836
0.132132
0.149225
0.0015263
-0.0515175
-0.112636
0.183959
-0.0344828
0.101725
-0.150803
0.0188382
0.015217
0.0752748
0.0773179
0.136778
0.07537
-0.000364062
0.0472077
0.110193
-0.216018
0.144118
-0.18388
-0.0428345
-0.0902944
0.0168486
0.16654
-0.196098
-0.200419
-0.054134
0.0185614
-0.00109136
0.0980683
0.0282711
-0.00162873
0.0717527
0.143607
0.0597831
-0.129279
0.000236062
0.153834
0.0844004
-0.0311932
-0.0945007
0.0947707
-0.196609
0.196446
-0.117901
-0.185725
0.0910958
-0.110382
0.159204
-0.00893502
0.00194429
0.0781184
0.0354504
0.158271
-0.04643
0.0692961
-0.093641
-0.0831568
-0.140453
-0.164128
0.164586
0.0561878
-0.0972306
0.0535296
-0.00839956
0.0127026
-0.0532393
-0.159891
-0.166695
0.16116
-0.21061
0.0281026
0.217258
0.000344561
0.110787
-0.0701519
-0.0079771
0.143864
0.273515
-0.234915
0.0442092
0.0857726
-0.285812
-0.224575
-0.293016
0.231173
-0.082967
0.245159
0.0897136
-0.00111664
0.0535099
0.217921
0.113687
-0.266006
0.0107559
0.134878
-0.170681
-0.119926
-0.0793564
0.172583
-0.0160871
0.00569637
0.268454
0.0936143
-0.043222
-0.151984
-0.044771
-0.155525
-0.183016
0.0961778
-0.0418578
-0.178422
0.202371
-0.0164611
-0.00376485
-0.207018
-0.0507833
0.0731389
0.163287
-0.0974853
0.204749
-0.29432
0.117934
0.203073
0.0817132
0.0387703
0.163765
-0.167863
0.0575896
-0.0417244
0.076269
0.13293
-0.204408
0.196038
-0.12777
0.0224559
-0.102278
0.0112346
-0.0528895
0.0675266
0.129758
-0.241849
0.0555203
0.177913
-0.212241
-0.212689
0.257092
0.0109273
0.0635407
-0.00968881
-0.210038
0.00681475
-0.0961265
0.263737
0.0338384
0.259428
0.0093893
0.114226
-0.144033
-0.0686089
-0.219047
-0.0290559
-0.0597814
0.204118
0.136946
-0.17478
-0.213344
0.234045
-0.00912781
0.00521316
0.161033
0.130755
-0.061421
0.00476093
-0.016307
0.164107
-0.167843
0.0806436
0.044159
-0.116359
0.0121093
-0.250014
0.116569
0.194259
0.0517076
0.0098195
0.238335
-0.231321
-0.0141862
0.0903956
-0.133242
0.0825573
0.18957
-0.120679
-0.186953
0.0427416
-0.023137
-0.016829
-0.00141602
0.163679
0.011232
0.182357
-0.0939126
0.0524222
0.0483856
-0.152014
0.14706
-0.0630194
-0.0546589
0.0294281
-0.152222
0.166143
0.0875676
0.0414797
0.0340427
0.0425997
-0.0778686
-0.112203
-0.0161303
-0.199489
0.254935
-0.0121594
-0.212398
-0.257385
0.110392
-0.138106
0.14901
-0.228036
0.0649073
0.249
0.177057
-0.0883941
0.221217
-0.0033638
-0.0267064
0.148109
0.144306
0.237932
0.0475313
-0.246489
0.184751
-0.193591
-0.204617
0.00503724
0.0084472
0.0211304
0.223086
-0.0687228
-0.224131
-0.207171
-0.11332
-0.118193
-0.0141581
0.274818
0.226972
0.0677547
-0.122163
-0.010757
0.243714
0.0817563
-0.02204
-0.248084
-0.123544
0.0099448
0.129263
-0.162518
0.0728423
0.0131272
-0.0792792
-0.0321549
0.0616422
0.158207
-0.10574
0.34203
0.0302952
-0.449928
-0.168325
0.0461757
0.00757785
0.0239405
-0.00858209
-0.0106318
-0.0478364
0.0426313
-0.0110141
-0.123552
0.0918479
0.00132459
-0.0390869
-0.314281
-0.0706219
-0.282256
0.257389
-0.139975
0.0186054
-0.0362395
0.0429296
-0.0940154
0.0322584
-0.0316857
0.0704166
-0.0659121
-0.235991
0.102037
-0.238951
-0.00555615
-0.190947
0.0998767
0.248257
0.0065693
-0.0914097
-0.0536135
-0.0466439
-0.164199
0.0717075
0.0745358
-0.10382
0.255745
0.0740829
-0.0588952
0.0961107
0.10332
-0.44468
-0.0831299
0.293204
0.021262
-0.0311366
-0.159634
-0.0117248
-0.0863647
0.00631444
-0.0256738
-0.0669549
0.0388369
-0.0210454
0.160718
0.313119
0.566521
-0.452485
0.738882
-0.363914
0.0319874
0.0815297
0.0725179
-0.0985666
-0.141181
0.00589299
-0.0169277
0.0551432
-0.0758259
-0.0254618
0.0829923
-0.148058
-0.894515
-1.04784
-1.46775
0.418874
-0.247346
-0.166644
0.140695
0.0205527
0.036274
0.0222102
0.0401429
-0.112172
-0.003996
0.0632208
-0.15173
0.295211
-0.117235
0.384663
0.163019
-0.0954044
0.176356
0.131273
0.011785
0.0871707
-0.0256354
-0.0866188
-0.116263
-0.0210027
0.0512232
0.00397148
-0.0369062
-0.595879
-0.247982
-0.612985
0.293605
-0.106105
0.129361
0.0247142
-0.00602187
-0.115131
-0.0460421
0.0306744
0.0177963
-0.0592971
0.029414
0.0171084
0.0241127
0.0148269
0.167121
0.262798
0.0443462
0.0875788
0.193745
-0.327577
-0.000791545
-0.085234
-0.0695851
-0.00887535
0.0751036
-0.00391257
-0.061489
-0.0244818
-0.025501
-0.0804386
-0.0118351
0.180049
-0.13843
-0.0631051
0.146723
-0.0561907
-0.0661299
0.0212433
-0.0203922
0.0229409
0.0836631
-0.0520554
-0.0507867
-0.0364621
0.0351233
-0.113954
0.0578535
-0.118914
0.0770081
-0.0149765
0.037581
0.0227949
-0.00900926
0.0469465
0.147581
0.0484762
-0.086985
0.0055581
-0.0369783
-0.075046
-0.0261106
0.104629
0.000747527
-0.00461053
0.00943688
-0.0639908
0.00879222
-0.0678961
-0.0879524
0.0345005
0.0525189
-0.0510801
-0.0413362
-0.0716274
0.0485394
0.0173154
-0.0298998
0.0562134
0.049983
-0.0840465
-0.0963308
-0.0151411
-0.0103834
0.00384312
0.0517104
-0.0132092
0.0501001
0.000838688
-0.156865
-0.0528522
-0.0430906
0.0680012
-0.0427036
0.0099701
0.00211725
0.0540367
-0.0277948
0.0642809
-0.045486
0.00223034
-0.0387648
-0.0403123
0.00618017
-0.0747312
-0.0440132
-0.0170225
0.0882856
0.0585361
0.00967159
-0.0112038
0.0242767
-0.0458829
0.0412812
0.0302137
0.0335634
0.017981
0.036425
-0.0133799
0.0117582
-0.0179367
-0.00730494
0.00456273
-0.0343484
-0.0902374
0.0693725
0.00236072
0.00560178
0.000373243
0.124569
0.0712401
-0.0241756
0.0906416
0.0170759
0.0209865
0.0154485
-0.0299406
-0.0122078
-0.913435
-0.0894811
0.0452365
-0.0452337
-0.0424269
0.0807768
0.000240514
0.130384
0.197343
0.0791958
-0.216737
0.0378091
0.0918638
-0.056838
-0.027015
-0.104787
0.100023
0.0944534
-0.102517
0.0431292
-0.196877
0.16108
0.0851916
0.537608
0.114644
-0.516182
0.283922
0.0423432
-0.00333961
-0.0188486
-0.127849
0.0429704
0.0264999
0.113169
-0.190892
-0.0697521
0.0493524
-0.0827055
-0.086831
-0.24611
-0.303145
-0.545567
0.0304164
0.157293
-0.0872705
-0.0408217
-0.192428
0.109635
0.107428
-0.233274
0.477672
0.0264269
-0.107666
0.171664
-0.199475
0.422263
-0.0336426
-0.130795
-0.0903987
-0.0269876
-0.184251
0.0169656
-0.139837
0.01065
-0.116533
-0.0310658
0.0205041
-0.130193
0.372219
-0.0445601
-0.181859
0.231755
-0.235317
0.282312
0.0891135
1.06788
0.312356
0.136513
-0.114123
0.0504991
0.0946893
-0.176807
-0.27542
0.0561964
0.202649
-0.0775572
0.185098
-0.11253
0.15292
0.179066
-0.627604
0.739313
-0.803674
0.204094
0.0549426
-0.00789937
0.0350083
-0.265464
-0.171541
0.224502
0.1148
-0.396164
-0.369093
0.0114827
0.20602
-0.248723
0.836055
-0.16222
-0.528106
0.140186
-0.0683776
-0.130913
-0.176794
-0.0209768
0.0785125
-0.0146396
0.0835411
0.0608828
0.0415674
-0.194272
0.0328874
0.237742
0.591667
-0.0508968
0.0208134
-0.163547
-0.0383678
0.0411749
0.0471823
-0.024413
0.0552679
0.0576656
0.0327384
-0.00752147
-0.016968
0.0686647
-0.00629776
0.0189101
0.0127622
-0.168013
0.0063892
-0.115048
-0.0906881
0.00579877
0.0792081
0.0367853
-0.0611262
-0.0217397
-0.0396248
-0.1005
-0.00641989
0.157897
-0.0829084
0.0575444
0.0789648
-0.0691075
-0.0819535
0.0166825
-0.0191744
0.0316527
0.115213
-0.0186178
-0.0937611
-0.0783768
0.0612204
-0.149923
0.124739
-0.152992
0.118013
-0.0286107
0.065836
0.00515497
-0.0193297
0.0405587
0.170295
0.0871523
-0.0679915
-0.0489863
-0.0787215
-0.108504
-0.0401662
0.152676
0.0232006
-0.0543819
0.0146166
-0.10761
0.0305949
-0.138118
-0.109674
0.0457641
0.0740225
-0.0621585
-0.0182463
-0.0984016
0.0564701
0.0580953
-0.028529
0.0747292
0.0698448
-0.114778
-0.152809
-0.034173
-0.0360427
-0.00473492
0.0821662
0.00620415
0.0757486
0.0244652
-0.181637
-0.00151103
-0.049858
0.0775277
-0.0978327
0.0315151
0.0198297
0.0609604
-0.0362429
0.0860408
-0.0525515
0.0340796
-0.0370231
-0.0643564
0.0147967
-0.159135
-0.0522307
0.051767
0.0448379
0.0401073
-0.00648358
-0.0211462
0.0552536
-0.0508748
0.0552063
0.0494688
0.0660616
0.0362363
0.0810813
0.00640975
-0.0173354
-0.119018
-0.132259
-0.0575234
0.0860527
-0.0901126
0.164572
-0.0444666
0.0103591
-0.0494027
0.236026
0.100116
-0.0356405
0.131386
0.0337698
-0.0229712
0.0589098
-0.14139
-0.0547931
-0.898516
-0.0674848
-0.0124845
-0.0271998
0.0644345
-0.12826
-0.178593
0.213615
0.348509
0.0934687
0.114857
0.0259571
0.111719
-0.198583
0.0247326
-0.0616803
0.0450503
0.00378291
-0.128189
-0.124586
0.275923
-0.00641534
0.0447683
0.397265
-0.0205477
0.306687
-0.327607
0.447585
0.0896003
-0.272285
-0.15461
0.0320594
-0.0426984
0.0697451
-0.170483
0.21866
-0.296712
-0.200272
0.0248499
-0.116774
-0.0392286
0.099056
-0.14817
-0.215659
-0.16165
-0.0592809
-0.489223
0.0866118
0.115548
-0.0351692
0.27625
0.0735565
-0.0992786
0.0683537
0.0683876
-0.0803484
-0.0628328
-0.138141
-0.00209522
0.0821399
-0.449656
0.0157744
-0.15927
-0.00513509
-0.00633906
0.00179843
-0.0027801
-0.0638175
0.188626
0.339459
0.525041
-0.388321
-0.126619
0.019466
0.188281
-0.113248
0.191385
-0.319376
-0.292239
0.0335517
0.0274646
0.0951097
-0.110512
-0.0412356
0.110498
-0.0720726
-0.443522
0.0368481
0.143074
-0.145883
0.3456
-0.147328
-0.0800553
0.179455
0.191057
0.0435541
0.0503087
-0.0317587
0.122783
0.0310517
-0.112665
0.333103
0.958481
-0.504348
0.650856
-0.392165
1.45204
0.0388114
-0.307366
0.231978
-0.150519
-0.0957869
-0.109485
0.070529
-0.0502716
-0.0254261
-0.0881057
-0.748706
-0.549649
-0.180383
-0.0259642
0.515576
0.951877
-0.114321
0.0858157
-0.293775
-0.0100173
0.0229293
0.0118678
-0.142097
-0.0140941
-0.0276663
0.0292545
-0.0791362
0.17232
-0.0332306
-0.0714142
0.0921531
0.0111764
-0.116578
0.0137153
-0.135368
-0.0592795
0.00361766
0.0552271
-0.0165801
-0.045156
0.00438542
-0.0281029
-0.0648292
-0.00644557
0.0780774
-0.0261358
0.0206263
0.0977826
-0.0585028
-0.0445016
-0.0182243
-0.00730722
0.013046
0.0933758
-0.0647419
-0.0289722
-0.042311
0.0438737
-0.0923775
0.0669767
-0.0945483
0.0683319
-0.0108832
0.0368653
0.0208496
-0.0224384
0.0291252
0.0902893
0.0570896
-0.0433475
0.0285816
-0.0428816
-0.0633429
-0.0288771
0.094902
0.0192071
-0.0320428
0.00986948
-0.0504602
0.0216273
-0.0831699
-0.0622708
0.0194546
0.0384205
-0.0586301
-0.0538715
-0.0527473
0.0431785
0.017218
-0.0154328
0.0426739
0.0510137
-0.0653815
-0.0767798
-0.00383503
-0.00254746
0.00120115
0.0473403
-0.00842713
0.0427133
0.0207885
-0.102286
-0.0793464
-0.0330054
0.0355778
-0.0421424
0.0236574
0.000359423
0.0455295
-0.0305149
0.0580651
-0.036743
0.00954842
-0.0312159
-0.0289499
-0.000467334
-0.0617035
-0.0297964
-0.00423445
0.0716003
0.0100166
0.00984562
0.00721994
0.0440759
-0.0275104
0.0348542
0.0299066
0.043176
0.0359387
0.0412115
-0.0071028
0.0189017
0.0265594
-0.00218606
0.0156683
0.0116121
-0.0122883
0.0138903
-0.00936988
0.00110151
-0.0267257
0.129311
0.0442918
0.00608975
0.0734814
0.0299132
0.0843924
-0.0118988
0.0114136
-0.019501
-0.942422
-0.0857421
-0.0666237
0.13814
0.161664
0.341591
-0.347512
0.349294
0.45252
0.0808294
-0.157383
0.0506526
0.0372176
-0.0656655
-0.010239
-0.0716564
0.0365362
-0.0779045
-0.202516
0.0247371
-0.0957
0.244227
0.498154
1.19237
0.171691
-0.717351
0.383436
-0.0776414
0.0471714
-0.0726964
-0.12776
0.0235804
-0.0585012
0.127032
-0.202282
-0.101088
0.0694919
0.0455702
-0.296446
-0.620231
-0.350327
-0.323469
0.152439
0.130617
-0.0854607
-0.0494366
-0.291165
0.0946366
0.10669
-0.0901781
0.421625
0.050843
0.0212114
0.110315
-0.089154
0.112607
-0.0115022
0.430233
0.129262
0.0457077
-0.227101
-0.00657696
-0.116682
0.0118539
-0.0452173
-0.119352
0.0169481
-0.00419889
0.0189419
-0.152447
-0.217065
0.211916
0.360907
-0.572023
-0.0316072
-0.201403
0.0668187
-0.245227
-0.241472
0.0322495
0.060379
0.064929
-0.142964
-0.0914495
0.0843935
-0.0299356
0.247085
0.262197
0.417395
0.107615
0.111783
-0.0345696
0.089815
0.0175104
0.0815468
0.0130342
0.0186116
-0.117279
0.0359469
-0.211808
-0.219354
0.529481
0.240581
0.00478711
-0.173846
0.357472
-1.00996
-0.00253634
0.0484056
0.119965
-0.0445246
-0.0961123
-0.135528
0.0553995
0.0382233
-0.0493952
-0.140193
-0.475022
-0.273638
-0.135639
0.0827455
-0.57918
-0.760076
0.290776
-0.0415531
-0.128323
-0.0408137
0.0229659
0.0332216
-0.111776
0.0195245
0.0126024
0.0185367
-0.0680279
0.0889542
0.00435113
-0.0539634
0.156324
0.363006
-0.756194
-0.01079
-0.0894286
-0.0644169
-0.00728097
0.0552448
-0.00960503
-0.0546609
-0.0231781
-0.0297552
-0.100174
-0.00496789
0.118618
-0.123849
-0.103855
0.296118
-0.0917875
-0.0441313
0.0117751
0.00781095
0.038611
0.089548
-0.0673907
-0.0345636
-0.0482387
0.0283741
-0.118232
0.0906781
-0.113241
0.0910519
-0.0250779
0.039291
0.0243952
-0.0297216
0.0226288
0.133546
0.0809749
-0.0841675
0.0344341
-0.0531606
-0.0530603
-0.0328346
0.123486
0.00589231
-0.0207631
0.010645
-0.0647631
0.0233775
-0.0958071
-0.0840874
0.0229564
0.0468196
-0.08081
-0.0653065
-0.0784587
0.052556
0.0352043
-0.0299966
0.0587336
0.051908
-0.0829715
-0.105134
-0.0191908
-0.014012
-0.0107237
0.0552494
0.0130762
0.0505182
0.0327655
-0.138983
-0.0720746
-0.039868
0.0627934
-0.0407169
0.0184145
0.0167544
0.0528496
-0.03991
0.0756184
-0.0548139
0.0139939
-0.0328812
-0.0475348
0.00521668
-0.0747772
-0.0461122
-0.0116688
0.0853901
0.0277496
-0.00555023
-0.00829363
0.0338615
-0.0503405
0.0335897
0.0259488
0.0134786
0.0139566
0.026711
-0.00838513
0.00700169
-0.0317546
0.00354942
0.0336915
0.00845077
-0.043909
0.0803256
0.00513656
0.00873127
-0.0319627
0.163967
0.0602646
-0.00909815
0.0965701
0.0215473
0.0116422
0.0144206
-0.0140943
-0.032525
-0.856547
-0.0863441
0.0483722
0.0949229
0.101194
0.574316
-0.289327
0.0405656
-0.0384851
0.0156003
-0.118242
0.0266366
0.0652203
0.0062898
-0.0149717
-0.0757348
0.0855347
0.0689361
0.0559941
0.205592
-0.415687
0.282275
0.000522012
-0.380464
-0.181818
0.237547
0.0280761
-0.267131
-0.0125666
0.148862
-0.086568
0.0141948
-0.0816195
-0.0450889
0.112475
-0.579123
0.443596
-0.189241
0.265801
0.351038
0.148491
0.22548
-0.179191
0.0426512
0.00273777
-0.129835
-0.0637796
0.0976767
0.082717
-0.109164
0.0935533
-0.0136579
-0.0122419
0.167143
-0.292962
0.089725
-0.0253703
-0.453274
-0.117813
-0.144971
0.222367
-0.155544
-0.101861
-0.0109677
-0.00598986
0.0429397
0.125281
-0.183722
0.593835
0.168273
-0.0764267
0.0773098
-0.321109
0.610928
-0.0103987
0.381421
-0.209561
-0.0877222
-0.0608282
0.0478766
0.0328557
0.0350961
-0.110515
-0.168622
0.427312
-0.226671
0.189385
0.124149
1.00336
0.485078
-0.986742
0.196452
0.0904358
0.0264598
-0.0622508
0.0181565
0.0684695
-0.0983216
-0.044301
-0.110605
-0.0775984
0.197449
0.00296291
-0.0224665
0.139104
-0.0557127
-0.831809
-0.166097
0.154756
-0.0651876
-0.0366466
-0.0934896
-0.144239
-0.0169249
0.0603268
-0.00349822
-0.0365451
0.0869124
0.0310035
0.0909428
0.0177441
-0.0325203
-0.12989
0.0815858
-0.00640624
-0.131523
-0.0489262
0.0582239
-0.0145331
-0.0900156
0.0438267
0.0621343
0.0221816
0.00158046
-0.0715651
-0.145603
-0.0777987
0.0278168
0.0796001
-0.136117
-0.0164331
-0.0805528
-0.0899578
-0.00513723
0.0581636
0.00367257
-0.0531353
0.0122302
-0.0346255
-0.0443543
-0.00594286
0.125815
-0.0250293
0.00127042
0.140438
-0.0701899
-0.0745192
0.0023715
-0.00776525
0.0328356
0.105378
-0.0654775
-0.0393381
-0.062741
0.0510865
-0.101171
0.121179
-0.15066
0.097984
-0.0510682
0.0632658
-0.00186353
-0.0418871
0.0367292
0.126707
0.0768528
-0.0630145
-0.00900217
-0.0416101
-0.06476
-0.0390559
0.124824
0.0178477
-0.0404862
0.00437455
-0.0871848
0.00740607
-0.0883201
-0.107478
0.0460474
0.0630865
-0.0396954
-0.0492591
-0.113026
0.0630725
0.0571229
-0.0202977
0.0577705
0.0384636
-0.109923
-0.120569
-0.0613098
-0.0181791
0.0107682
0.0858217
0.0168122
0.0546138
0.0512989
-0.158415
-0.0518917
-0.0220467
0.0226994
-0.0810277
0.0421194
0.0282234
0.0404791
-0.0397374
0.10066
-0.0266836
-0.00108746
-0.0639093
-0.0503835
0.00275983
-0.109519
-0.0407177
-0.0127031
0.117982
0.0193181
-0.0131559
-0.0341911
0.0824065
-0.0700798
0.0429307
0.0340235
0.0726543
0.0572033
0.105888
0.0052284
0.029285
-0.0217066
-0.00902548
0.0629946
0.0661006
-0.076195
0.0429655
-0.0173849
-0.00105129
0.0130975
0.134831
0.0474376
-0.0377149
0.164271
0.00313008
-0.0026165
0.0640226
-0.00723584
-0.000276703
-0.487328
-0.0154808
-0.0838654
0.127476
0.155544
0.16872
-0.0137159
0.081161
0.562391
0.0528085
-0.122042
0.058089
0.00583074
-0.0631925
-0.0101231
0.00779526
0.103509
-0.0485542
-0.243647
0.00758804
0.0308534
-0.0107433
-0.148508
-0.129197
0.0867476
-0.984563
0.433699
0.0689671
0.0184527
-0.0308686
-0.0728385
0.0262785
0.00382908
0.176301
-0.339155
0.111539
-0.0013495
-0.463152
0.425948
0.371848
-0.0204357
-0.123328
-0.0841621
0.134281
-0.059103
0.00486059
-0.195933
0.0622271
0.0431076
-0.241704
1.15849
0.0544275
0.14148
0.0335061
-0.222629
-0.106681
-0.0569199
-0.012502
-0.0447579
-0.0582498
-0.241623
0.0224567
-0.0892932
0.00270668
-0.0194006
-0.227892
0.0341621
0.0919092
-0.0991034
-0.333967
0.0111934
1.35221e-05
0.415271
-0.257633
0.0791345
-0.38832
0.0600059
-0.0838226
-0.10805
0.0179373
0.0198071
-0.0105842
-0.169428
0.176462
-0.333459
0.2087
0.0142288
-0.211655
0.204593
0.0892537
0.158149
-0.307297
0.201215
-0.0214458
-0.00659616
0.00114243
0.0475399
-0.17596
-0.195002
0.723909
0.580825
-1.23521
-0.245875
-0.0740327
-0.44616
0.304712
-0.479041
0.170892
0.113363
0.0120819
0.00020041
-0.0606589
-0.0963008
-0.114972
0.127928
0.0789893
0.334745
0.824313
0.293616
-0.0263207
0.0901926
-0.519763
-0.419616
0.147432
-0.0472453
-0.0557599
-0.0328213
0.0356341
0.0266944
0.0743027
0.0631323
0.0992485
0.0473008
0.0469207
-0.170839
0.0421576
-0.00104735
0.116349
0.288684
-0.395082
-0.0196868
-0.0533388
-0.0418429
-0.00502984
0.0329336
0.00559937
-0.000528074
-0.0331415
-0.00255748
-0.028795
0.00186108
0.0821289
-0.105227
-0.0828927
0.143429
-0.043424
-0.0301187
0.0184009
-0.00185112
0.00568195
0.0922656
-0.0190737
-0.0458964
-0.01171
0.0327021
-0.063803
0.0616626
-0.0738774
0.0418522
-0.0109186
0.0249084
0.0119768
-0.0166772
0.0191788
0.0508568
0.00705323
-0.00506161
0.00743366
-0.0217985
-0.0400907
-0.0120266
0.0568452
0.00973229
-0.016735
0.00263389
-0.0326201
0.00597312
-0.0543997
-0.0491364
0.0183525
0.0231511
-0.0223227
0.0235531
-0.0169475
0.0257973
0.0197038
-0.0159366
0.0361763
0.0282224
-0.0594436
-0.0719698
-0.0036455
-0.00866256
-0.00631073
0.0190285
0.0020007
0.0313364
0.0184586
-0.0928687
-0.0166307
-0.0217777
0.035819
-0.0279377
0.00340673
0.00287135
0.0238703
-0.0201888
0.0515758
-0.0471715
0.00236082
-0.0230304
-0.0261098
0.00772252
-0.0689672
-0.0523104
-0.000585117
0.0219457
0.0185386
-0.00717435
-0.0100125
-0.000494477
-0.0302741
0.0361795
-0.000384425
0.0200676
0.0121398
0.0408967
-1.88147e-05
-0.00260052
-0.0059781
-0.0482156
-0.000622004
0.0207297
-0.0432137
0.0405926
-0.00406809
0.0353934
0.0288737
0.0876921
0.00913435
-0.0122719
0.0124506
0.0381686
-0.0250585
0.0278098
0.00836865
0.0115172
-1.18417
-0.044933
-0.0430164
-0.005242
0.0817054
-0.297934
0.502503
-0.0582787
-1.13813
-0.337954
0.131191
0.0392603
0.0479238
-0.0202449
-0.0249456
-0.0395083
0.0419258
0.00494171
-0.147543
0.071235
-0.016174
-0.0785628
-0.427881
-0.460475
-0.624386
0.765724
-0.410994
0.0411577
-0.0658482
0.103632
-0.0573459
0.024583
-0.0159251
0.0817819
-0.109812
-0.138321
0.0725763
-0.318803
0.439813
0.446821
0.241649
0.606392
-0.34179
-0.166193
-0.0490467
-0.0219014
-0.0774344
0.0684801
0.0583412
-0.125384
0.13111
0.060357
0.0401045
0.159255
-0.415881
0.203112
0.0986696
-0.168454
-0.0460483
-0.0379714
-0.0466323
0.0188432
-0.019416
-0.00515928
-0.0343288
-0.00398697
-0.0232206
-0.0436422
0.177945
-0.306943
-0.267788
0.301845
0.256438
-0.229446
0.0908101
-0.129707
0.0588525
-0.0206526
-0.0637676
0.00457451
0.00969779
0.0309108
-0.113104
-0.165484
0.0319298
-0.053587
0.294977
-0.267012
-0.075075
0.200581
-0.0245721
-0.305833
0.221021
0.0145477
0.027594
0.00715174
0.0356788
-0.13448
0.0163958
-0.285068
0.0586004
-0.790977
-0.545959
-0.0218894
0.010636
-0.184175
0.438558
0.212912
0.119557
0.0601159
-0.0179452
-0.0453675
-0.0929233
-0.0134592
0.0578981
-0.000653052
0.076272
0.892707
0.395979
0.151791
0.0612128
-0.0145696
0.392129
-0.0208001
-0.0105988
-0.0748591
-0.0252751
0.0238887
-0.0288344
0.00457477
0.035551
0.0392473
0.0221373
0.0095856
-0.234361
-0.0356435
-0.0134736
0.137047
0.193857
-0.312072
0.0149871
-0.0623392
-0.0432444
3.97207e-05
0.0552235
0.0174405
-0.0395358
-0.0256258
0.000654027
-0.0421514
-0.00073612
0.0943498
-0.110905
-0.0924285
0.131307
-0.0413256
-0.0308079
0.0195333
-0.00106174
0.0235678
0.0927322
-0.0284467
-0.0433708
-0.0242641
0.0264355
-0.0734918
0.0712813
-0.0901535
0.0634588
-0.020408
0.0397701
-0.00753737
-0.0104622
0.0172683
0.0601688
0.0427937
-0.0630844
-0.00829074
-0.0221538
-0.0423923
-0.0290663
0.0801128
0.00428551
-0.0194688
0.0137231
-0.0600315
0.0127299
-0.0617197
-0.0545659
0.0230653
0.0279998
-0.04956
-0.0209705
-0.0327598
0.0182417
0.0410048
-0.0129883
0.0275507
0.0321494
-0.0407994
-0.0909725
-0.00852768
-0.00871886
0.00330711
0.0412126
0.00651657
0.0415198
0.0187361
-0.0980729
-0.0241601
-0.0372652
0.0420514
-0.0249561
0.0064045
0.0117175
0.0316781
-0.0406425
0.0495744
-0.0346842
-0.00915463
-0.0300881
-0.0302778
0.0145837
-0.0648682
-0.035289
0.0230316
0.0259946
0.0502327
-0.0202166
-0.00919853
0.0011383
-0.0300021
0.0419283
0.0173855
0.0163497
-0.00590754
0.0234665
-0.0184122
0.00429736
-0.0432829
-0.063714
-0.00165596
-0.0426776
-0.104274
0.116753
-0.0283409
0.0488615
-0.00424767
0.0779326
0.0380085
-0.00264618
0.0375936
-0.04092
-0.0312207
0.0307459
-0.0467904
-0.0803851
-0.82491
-0.108364
0.0126859
0.289819
0.37591
0.436265
-0.0491515
0.121288
-0.0278733
0.00223129
-0.137548
0.00817162
0.0778594
0.0270498
0.0195277
-0.0804041
0.0213701
-0.0347243
-0.152949
0.0564804
0.000106569
0.0608311
-0.0442458
-0.0431613
-0.157023
0.0816987
0.298158
-0.290172
-0.0145983
0.101827
-0.128112
0.0249219
-0.0402581
0.0593557
-0.210441
-0.0650287
-0.0686487
-0.075003
0.112602
0.114535
-0.00366222
-0.319961
-0.174785
-0.00502869
-0.0639334
-0.0936877
-0.136902
0.0942117
0.0971148
-0.176077
0.643979
0.0305993
0.0374634
0.00457283
-0.206532
0.422853
-0.0643232
-0.609588
-0.197608
-0.130014
-0.0851772
-0.0852768
-0.0884394
0.0221891
-0.0605264
-0.0461341
0.121633
-0.0396051
-0.136589
-0.315656
-0.361112
0.226423
-0.0681056
0.403961
0.446461
-0.189159
-0.00364057
-0.248431
-0.149718
0.0277224
0.00632901
-0.0979098
-0.175009
-0.285798
0.0635753
-0.0627193
0.119752
-0.101049
-0.858152
-0.0710621
0.290058
-0.989282
0.885315
-0.164995
-0.11346
0.0290931
0.0417419
-0.179571
-0.140436
-0.445236
-0.1419
-0.0972591
-0.666253
0.232439
0.211429
-0.108735
0.565038
0.384671
0.804002
-0.115158
0.0247317
-0.123651
-0.140135
-0.077565
0.259253
-0.0863587
-0.00349176
0.0892002
0.123437
-0.0579704
0.0446492
0.101325
0.19
-0.0731673
-0.0781172
-0.0632699
-0.0662297
0.025384
0.0990469
0.00700753
0.0763315
0.130532
-0.0159858
-0.0221647
-0.11656
-0.0647414
-0.0476666
0.0317049
0.0172936
-0.022513
0.00541665
-0.105556
-0.0725132
0.0320715
0.0946388
-0.000528433
-0.0319166
-0.0449512
-0.0205601
-0.0907997
-0.00575638
0.118456
-0.0645772
0.0321944
0.0852966
-0.0288569
-0.0948464
0.0397057
-0.0144229
0.0244465
0.12189
-0.0527579
-0.0625497
-0.0740221
0.059456
-0.142475
0.110568
-0.138954
0.113474
-0.0280849
0.0649845
0.00893297
-0.0413134
0.0478406
0.145453
0.0690897
-0.0663899
-0.00359718
-0.0941888
-0.0954089
-0.02597
0.137597
0.0181578
-0.0295519
0.0209128
-0.0933197
0.0121788
-0.132008
-0.0966919
0.0322703
0.0640684
-0.0809582
-0.0746253
-0.0935025
0.0688032
0.0369194
-0.0260058
0.0637892
0.0697675
-0.0891575
-0.117086
-0.0232576
-0.018005
-0.00314448
0.0894146
0.00222093
0.0740997
0.0433152
-0.180692
-0.0585923
-0.0436897
0.0692634
-0.0761352
0.0288848
0.010676
0.0480292
-0.0437944
0.0886923
-0.0742667
0.00998865
-0.0501568
-0.0515285
0.0149499
-0.128058
-0.0821877
-0.022901
0.0792504
0.0388661
0.0109142
-0.0120157
0.0510232
-0.0742437
0.0194632
0.0410545
0.0582673
0.0520652
0.0618935
0.0149762
0.0192536
-0.0314935
-0.0224955
0.0405205
0.0735848
-0.0717052
0.0930651
-0.00731486
0.048625
-0.0450856
0.264291
0.092215
-0.0273564
0.116759
0.0333326
-0.0121045
0.0724842
0.0357149
-0.0109849
-1.19614
-0.00136355
-0.0238341
0.0397054
0.0505196
-0.083057
0.123772
-0.0727709
0.0658451
0.0553684
0.140783
0.0965181
-0.0294381
-0.0789832
-0.0145703
-0.036136
0.0330712
-0.0151627
-0.0105881
0.0186056
0.0821153
0.0033136
-0.189635
-1.10156
-0.0448401
0.257092
-0.175427
0.252102
0.0644958
-0.247088
-0.0348594
0.00316558
0.0145971
0.0286593
0.00906882
-0.0204689
-0.136869
-0.528848
0.678718
0.821197
0.338221
0.513879
-0.257577
0.00997585
-0.0990717
0.0278105
-0.252543
0.0257269
0.0354281
0.0169408
-0.00910718
0.171535
-0.0237251
0.19815
-0.456388
0.390466
0.172588
-0.264987
0.0709407
0.0518548
-0.217381
0.0339424
-0.0663291
0.00103269
-0.0184145
0.0385289
-0.0353454
-0.0680088
0.321155
-0.285281
-0.540413
0.445236
-0.0952604
-0.421217
0.0095356
-0.452132
-0.0121724
-0.285945
-0.198363
0.00529867
-0.0402452
0.0620035
-0.0607286
-0.0085895
0.110425
-0.00338181
0.393578
0.519613
-0.056819
-0.166414
0.653817
-0.629032
0.681186
-0.0332141
0.128139
0.0176615
0.0301603
-0.0172427
0.0805733
-0.0213203
-0.173405
1.24709
0.595284
0.194627
0.370467
-0.103815
0.0330464
0.308859
0.404705
0.123142
-0.0538097
-0.0149024
-0.0502156
0.0300093
-0.0567264
-0.0235606
-0.118507
-0.558619
-0.31131
0.0567323
0.0220759
-0.0591466
0.10554
0.0874014
-0.00465663
-0.0739603
7.61698e-05
0.0108643
0.0134988
-0.0465546
-0.0133572
-0.0147592
0.00618504
-0.0410511
0.0380595
-0.122876
-0.0636298
0.133909
0.168047
-0.59653
-0.00108206
-0.0187968
-0.0170219
-0.00823607
0.00243257
-0.00886275
-0.00984242
0.0120022
-0.00978796
-0.0192373
0.00563726
-0.00790586
-0.0243417
-0.0556499
0.190152
-0.0625004
0.00383025
-0.0154747
0.00102374
-0.0185254
0.00330043
-0.0207892
-0.00849863
-0.0032734
0.00322458
-0.0237912
0.0251628
-0.0271274
0.0189107
-0.00728369
-0.00012502
0.00531985
0.00310613
0.00273724
0.00373436
0.00647903
0.00867056
0.0161282
-0.0112438
-0.0048512
-0.00429938
0.0153144
0.000125477
0.0117345
-0.00671011
-0.0153139
-0.0111034
-0.00677894
-0.00916857
-0.00748705
-0.00142285
-0.0125435
-0.0394258
-0.013859
0.00954142
0.00858852
-0.00856279
0.0139572
0.00700929
-0.0201961
-0.0171054
0.00337141
-0.00508466
0.00379421
0.00558411
-0.0126004
0.0112338
0.00156193
-0.0364016
-0.0452517
-0.00239006
0.00901889
-0.00351911
0.00449386
0.00339499
-0.00474113
-0.00547074
0.0124873
-0.00617371
-0.0151904
-0.0153893
-0.00325561
0.003838
-0.0362616
-0.0430966
-0.0113159
-0.0086353
-0.00369055
-0.00479385
0.000576153
0.0208313
-0.0169765
0.00341489
-0.00743665
-0.00633563
0.0013147
-0.00982357
0.00532694
0.00299398
-0.015544
-0.0323241
0.0794597
0.00577773
-0.00162038
-0.0124293
-0.00800107
0.0050735
-0.0107674
0.0473168
0.0108633
-0.0162542
0.015774
0.0462619
0.0701599
-0.0112769
-0.0379509
-0.00506164
-0.337981
-0.0645459
-0.0615686
0.103757
0.162075
-0.260549
0.407014
0.264071
0.455039
0.188089
-0.133367
0.088057
0.0145821
-0.0347913
0.0014322
0.0138447
0.0281425
-0.074353
-0.150456
-0.0512333
0.208035
-0.154305
-0.118135
0.166991
0.050713
-0.422422
0.330206
-0.0973312
0.030622
-0.136721
-0.0432278
0.00175211
-0.0459242
0.0880096
-0.132915
0.177192
-0.162146
-0.113716
0.0977748
0.197022
0.00833889
-0.187546
-0.287673
0.142189
-0.0416749
-0.0133063
-0.188388
0.0368767
0.0338273
-0.0129364
0.32412
0.0305636
-0.0307177
-0.0334532
0.022099
0.124171
-0.00438222
-0.467092
-0.175861
-0.12509
-0.195584
0.0216473
-0.0721576
0.00422928
-0.0172634
-0.106497
-0.0264773
0.0166289
-0.00313464
0.262718
0.317615
-0.17714
-0.276143
0.516029
0.147525
-0.0489067
-0.013068
-0.300554
-0.178689
0.0256331
0.051712
0.0622385
-0.0909802
0.166723
-0.0202471
-0.0745923
-0.590488
-0.820429
1.31372
0.076913
-0.383643
-0.226349
0.314499
-0.0734482
0.0205228
0.0274769
0.0270233
0.00501993
0.0623787
0.338089
0.0414175
-0.0876958
0.598786
-0.901642
-0.968786
0.129255
-0.269545
0.0120046
0.229886
-0.0153521
-0.0111696
-0.0423278
-0.0322535
0.0103487
-0.0135864
-0.00811131
0.036739
-0.591531
-0.279818
-0.765099
0.134531
-0.27615
-0.226996
0.0958057
-0.0910897
-0.0850716
-0.0258728
0.030654
0.00987189
-0.0762996
-0.00260129
-0.0036489
0.0225247
-0.00627152
0.260831
0.530314
0.168617
0.024086
0.154949
-0.142047
-0.0175709
-0.0503146
-0.028483
0.0150763
0.0315379
-0.00468294
-0.0551201
-0.00888922
-0.0285785
-0.0572035
-0.00829529
0.126691
-0.117489
-0.070448
0.0770921
-0.0208148
-0.0394195
0.0254225
-0.00679097
0.0133098
0.0431028
-0.0563575
-0.0232363
-0.0386341
0.00519954
-0.0333214
0.0307938
-0.0588125
0.037985
-0.00529445
0.0338022
0.00375609
-0.000550751
0.00530688
0.065082
0.0303064
0.0151371
0.0220227
-0.0047072
-0.0412489
-0.0163477
0.0484064
-0.00799692
-0.029419
-0.00655016
-0.0248545
0.0290687
-0.0447821
-0.0291421
0.00463563
0.00740746
-0.0144339
-0.00236808
-0.0401386
0.0370477
0.0160894
-0.0094585
0.0280938
0.0357789
-0.0500265
-0.0694005
-0.00604194
-0.0101771
-0.00368011
0.0510593
0.00495005
0.0192228
0.0236598
-0.0498323
-0.067655
-0.0210078
0.0180315
-0.0202156
-0.00671124
0.00465858
0.00109556
-0.00547758
0.0383929
-0.023669
0.0130504
-0.0184464
-0.0274702
0.012114
-0.0141519
-0.0272354
-0.0106679
0.0345645
-0.00584097
-0.0162802
-0.00108026
0.0104985
-0.0370617
0.0340214
0.00961364
0.00370655
0.025742
0.0425445
-0.0151732
-0.0161685
-0.00170501
0.0392234
0.0517515
0.00839143
0.0241132
0.0445277
0.00785672
0.0221637
0.00127639
0.0631566
0.0148351
-0.0371631
0.0432617
0.070622
0.00412014
0.0107601
-0.0147896
0.000433925
-0.426612
